digraph Tree {
node [shape=box, style="filled", color="black"] ;
graph [ranksep=equally, splines=polyline] ;
0 [label="Glucose <= 0.197\nentropy = 0.927\nsamples = 2000\nvalue = [1316, 684]\nclass = 1", fillcolor="#f3c2a0"] ;
1 [label="Age <= -0.39\nentropy = 0.692\nsamples = 1249\nvalue = [1017, 232]\nclass = 1", fillcolor="#eb9e66"] ;
0 -> 1 [labeldistance=2.5, labelangle=45, headlabel="True"] ;
2 [label="BMI <= -0.097\nentropy = 0.405\nsamples = 718\nvalue = [660, 58]\nclass = 1", fillcolor="#e78c4a"] ;
1 -> 2 ;
3 [label="Pregnancies <= 1.149\nentropy = 0.096\nsamples = 403\nvalue = [398, 5]\nclass = 1", fillcolor="#e5833b"] ;
2 -> 3 ;
4 [label="DiabetesPedigreeFunction <= 0.622\nentropy = 0.045\nsamples = 400\nvalue = [398, 2]\nclass = 1", fillcolor="#e5823a"] ;
3 -> 4 ;
5 [label="entropy = 0.0\nsamples = 345\nvalue = [345, 0]\nclass = 1", fillcolor="#e58139"] ;
4 -> 5 ;
6 [label="DiabetesPedigreeFunction <= 0.666\nentropy = 0.225\nsamples = 55\nvalue = [53, 2]\nclass = 1", fillcolor="#e68640"] ;
4 -> 6 ;
7 [label="entropy = 0.0\nsamples = 2\nvalue = [0, 2]\nclass = 0", fillcolor="#399de5"] ;
6 -> 7 ;
8 [label="entropy = 0.0\nsamples = 53\nvalue = [53, 0]\nclass = 1", fillcolor="#e58139"] ;
6 -> 8 ;
9 [label="entropy = 0.0\nsamples = 3\nvalue = [0, 3]\nclass = 0", fillcolor="#399de5"] ;
3 -> 9 ;
10 [label="BloodPressure <= -1.676\nentropy = 0.654\nsamples = 315\nvalue = [262, 53]\nclass = 1", fillcolor="#ea9a61"] ;
2 -> 10 ;
11 [label="entropy = 0.0\nsamples = 6\nvalue = [0, 6]\nclass = 0", fillcolor="#399de5"] ;
10 -> 11 ;
12 [label="DiabetesPedigreeFunction <= 1.498\nentropy = 0.615\nsamples = 309\nvalue = [262, 47]\nclass = 1", fillcolor="#ea985d"] ;
10 -> 12 ;
13 [label="Glucose <= -1.019\nentropy = 0.574\nsamples = 301\nvalue = [260, 41]\nclass = 1", fillcolor="#e99558"] ;
12 -> 13 ;
14 [label="entropy = 0.0\nsamples = 62\nvalue = [62, 0]\nclass = 1", fillcolor="#e58139"] ;
13 -> 14 ;
15 [label="Insulin <= -0.043\nentropy = 0.661\nsamples = 239\nvalue = [198, 41]\nclass = 1", fillcolor="#ea9b62"] ;
13 -> 15 ;
16 [label="Glucose <= -0.302\nentropy = 0.876\nsamples = 98\nvalue = [69, 29]\nclass = 1", fillcolor="#f0b68c"] ;
15 -> 16 ;
17 [label="Pregnancies <= -0.969\nentropy = 0.677\nsamples = 56\nvalue = [46, 10]\nclass = 1", fillcolor="#eb9c64"] ;
16 -> 17 ;
18 [label="SkinThickness <= -0.524\nentropy = 0.998\nsamples = 17\nvalue = [9, 8]\nclass = 1", fillcolor="#fcf1e9"] ;
17 -> 18 ;
19 [label="entropy = 0.0\nsamples = 9\nvalue = [9, 0]\nclass = 1", fillcolor="#e58139"] ;
18 -> 19 ;
20 [label="entropy = 0.0\nsamples = 8\nvalue = [0, 8]\nclass = 0", fillcolor="#399de5"] ;
18 -> 20 ;
21 [label="SkinThickness <= 1.215\nentropy = 0.292\nsamples = 39\nvalue = [37, 2]\nclass = 1", fillcolor="#e68844"] ;
17 -> 21 ;
22 [label="entropy = 0.0\nsamples = 35\nvalue = [35, 0]\nclass = 1", fillcolor="#e58139"] ;
21 -> 22 ;
23 [label="BMI <= 0.878\nentropy = 1.0\nsamples = 4\nvalue = [2, 2]\nclass = 1", fillcolor="#ffffff"] ;
21 -> 23 ;
24 [label="entropy = 0.0\nsamples = 2\nvalue = [0, 2]\nclass = 0", fillcolor="#399de5"] ;
23 -> 24 ;
25 [label="entropy = 0.0\nsamples = 2\nvalue = [2, 0]\nclass = 1", fillcolor="#e58139"] ;
23 -> 25 ;
26 [label="BMI <= 0.289\nentropy = 0.993\nsamples = 42\nvalue = [23, 19]\nclass = 1", fillcolor="#fae9dd"] ;
16 -> 26 ;
27 [label="BloodPressure <= -0.425\nentropy = 0.414\nsamples = 12\nvalue = [1, 11]\nclass = 0", fillcolor="#4ba6e7"] ;
26 -> 27 ;
28 [label="entropy = 0.0\nsamples = 1\nvalue = [1, 0]\nclass = 1", fillcolor="#e58139"] ;
27 -> 28 ;
29 [label="entropy = 0.0\nsamples = 11\nvalue = [0, 11]\nclass = 0", fillcolor="#399de5"] ;
27 -> 29 ;
30 [label="SkinThickness <= -0.462\nentropy = 0.837\nsamples = 30\nvalue = [22, 8]\nclass = 1", fillcolor="#eeaf81"] ;
26 -> 30 ;
31 [label="DiabetesPedigreeFunction <= 1.013\nentropy = 0.845\nsamples = 11\nvalue = [3, 8]\nclass = 0", fillcolor="#83c2ef"] ;
30 -> 31 ;
32 [label="entropy = 0.0\nsamples = 8\nvalue = [0, 8]\nclass = 0", fillcolor="#399de5"] ;
31 -> 32 ;
33 [label="entropy = 0.0\nsamples = 3\nvalue = [3, 0]\nclass = 1", fillcolor="#e58139"] ;
31 -> 33 ;
34 [label="entropy = 0.0\nsamples = 19\nvalue = [19, 0]\nclass = 1", fillcolor="#e58139"] ;
30 -> 34 ;
35 [label="Glucose <= -0.364\nentropy = 0.42\nsamples = 141\nvalue = [129, 12]\nclass = 1", fillcolor="#e78d4b"] ;
15 -> 35 ;
36 [label="Pregnancies <= -0.667\nentropy = 0.667\nsamples = 69\nvalue = [57, 12]\nclass = 1", fillcolor="#ea9c63"] ;
35 -> 36 ;
37 [label="entropy = 0.0\nsamples = 35\nvalue = [35, 0]\nclass = 1", fillcolor="#e58139"] ;
36 -> 37 ;
38 [label="BMI <= 0.7\nentropy = 0.937\nsamples = 34\nvalue = [22, 12]\nclass = 1", fillcolor="#f3c6a5"] ;
36 -> 38 ;
39 [label="DiabetesPedigreeFunction <= 0.108\nentropy = 0.75\nsamples = 28\nvalue = [22, 6]\nclass = 1", fillcolor="#eca36f"] ;
38 -> 39 ;
40 [label="entropy = 0.0\nsamples = 19\nvalue = [19, 0]\nclass = 1", fillcolor="#e58139"] ;
39 -> 40 ;
41 [label="Insulin <= 0.047\nentropy = 0.918\nsamples = 9\nvalue = [3, 6]\nclass = 0", fillcolor="#9ccef2"] ;
39 -> 41 ;
42 [label="entropy = 0.0\nsamples = 3\nvalue = [3, 0]\nclass = 1", fillcolor="#e58139"] ;
41 -> 42 ;
43 [label="entropy = 0.0\nsamples = 6\nvalue = [0, 6]\nclass = 0", fillcolor="#399de5"] ;
41 -> 43 ;
44 [label="entropy = 0.0\nsamples = 6\nvalue = [0, 6]\nclass = 0", fillcolor="#399de5"] ;
38 -> 44 ;
45 [label="entropy = 0.0\nsamples = 72\nvalue = [72, 0]\nclass = 1", fillcolor="#e58139"] ;
35 -> 45 ;
46 [label="SkinThickness <= 0.594\nentropy = 0.811\nsamples = 8\nvalue = [2, 6]\nclass = 0", fillcolor="#7bbeee"] ;
12 -> 46 ;
47 [label="entropy = 0.0\nsamples = 2\nvalue = [2, 0]\nclass = 1", fillcolor="#e58139"] ;
46 -> 47 ;
48 [label="entropy = 0.0\nsamples = 6\nvalue = [0, 6]\nclass = 0", fillcolor="#399de5"] ;
46 -> 48 ;
49 [label="BMI <= -0.717\nentropy = 0.913\nsamples = 531\nvalue = [357, 174]\nclass = 1", fillcolor="#f2be9a"] ;
1 -> 49 ;
50 [label="BMI <= -2.767\nentropy = 0.191\nsamples = 102\nvalue = [99, 3]\nclass = 1", fillcolor="#e6853f"] ;
49 -> 50 ;
51 [label="entropy = 0.0\nsamples = 3\nvalue = [0, 3]\nclass = 0", fillcolor="#399de5"] ;
50 -> 51 ;
52 [label="entropy = 0.0\nsamples = 99\nvalue = [99, 0]\nclass = 1", fillcolor="#e58139"] ;
50 -> 52 ;
53 [label="Glucose <= -0.832\nentropy = 0.97\nsamples = 429\nvalue = [258, 171]\nclass = 1", fillcolor="#f6d5bc"] ;
49 -> 53 ;
54 [label="Glucose <= -2.891\nentropy = 0.578\nsamples = 109\nvalue = [94, 15]\nclass = 1", fillcolor="#e99559"] ;
53 -> 54 ;
55 [label="entropy = 0.0\nsamples = 6\nvalue = [0, 6]\nclass = 0", fillcolor="#399de5"] ;
54 -> 55 ;
56 [label="Pregnancies <= 1.754\nentropy = 0.428\nsamples = 103\nvalue = [94, 9]\nclass = 1", fillcolor="#e78d4c"] ;
54 -> 56 ;
57 [label="DiabetesPedigreeFunction <= 2.13\nentropy = 0.162\nsamples = 84\nvalue = [82, 2]\nclass = 1", fillcolor="#e6843e"] ;
56 -> 57 ;
58 [label="entropy = 0.0\nsamples = 82\nvalue = [82, 0]\nclass = 1", fillcolor="#e58139"] ;
57 -> 58 ;
59 [label="entropy = 0.0\nsamples = 2\nvalue = [0, 2]\nclass = 0", fillcolor="#399de5"] ;
57 -> 59 ;
60 [label="BMI <= -0.281\nentropy = 0.949\nsamples = 19\nvalue = [12, 7]\nclass = 1", fillcolor="#f4caac"] ;
56 -> 60 ;
61 [label="entropy = 0.0\nsamples = 5\nvalue = [0, 5]\nclass = 0", fillcolor="#399de5"] ;
60 -> 61 ;
62 [label="DiabetesPedigreeFunction <= 0.404\nentropy = 0.592\nsamples = 14\nvalue = [12, 2]\nclass = 1", fillcolor="#e9965a"] ;
60 -> 62 ;
63 [label="entropy = 0.0\nsamples = 12\nvalue = [12, 0]\nclass = 1", fillcolor="#e58139"] ;
62 -> 63 ;
64 [label="entropy = 0.0\nsamples = 2\nvalue = [0, 2]\nclass = 0", fillcolor="#399de5"] ;
62 -> 64 ;
65 [label="DiabetesPedigreeFunction <= 0.278\nentropy = 1.0\nsamples = 320\nvalue = [164, 156]\nclass = 1", fillcolor="#fef9f5"] ;
53 -> 65 ;
66 [label="SkinThickness <= 0.408\nentropy = 0.963\nsamples = 225\nvalue = [138, 87]\nclass = 1", fillcolor="#f5d0b6"] ;
65 -> 66 ;
67 [label="BloodPressure <= 1.035\nentropy = 0.997\nsamples = 135\nvalue = [63, 72]\nclass = 0", fillcolor="#e6f3fc"] ;
66 -> 67 ;
68 [label="Age <= 1.902\nentropy = 0.974\nsamples = 121\nvalue = [49, 72]\nclass = 0", fillcolor="#c0e0f7"] ;
67 -> 68 ;
69 [label="Age <= 0.12\nentropy = 0.94\nsamples = 112\nvalue = [40, 72]\nclass = 0", fillcolor="#a7d3f3"] ;
68 -> 69 ;
70 [label="Age <= -0.135\nentropy = 0.928\nsamples = 35\nvalue = [23, 12]\nclass = 1", fillcolor="#f3c3a0"] ;
69 -> 70 ;
71 [label="Pregnancies <= -0.213\nentropy = 0.999\nsamples = 23\nvalue = [11, 12]\nclass = 0", fillcolor="#eff7fd"] ;
70 -> 71 ;
72 [label="entropy = 0.0\nsamples = 6\nvalue = [6, 0]\nclass = 1", fillcolor="#e58139"] ;
71 -> 72 ;
73 [label="DiabetesPedigreeFunction <= -0.259\nentropy = 0.874\nsamples = 17\nvalue = [5, 12]\nclass = 0", fillcolor="#8bc6f0"] ;
71 -> 73 ;
74 [label="entropy = 0.0\nsamples = 12\nvalue = [0, 12]\nclass = 0", fillcolor="#399de5"] ;
73 -> 74 ;
75 [label="entropy = 0.0\nsamples = 5\nvalue = [5, 0]\nclass = 1", fillcolor="#e58139"] ;
73 -> 75 ;
76 [label="entropy = 0.0\nsamples = 12\nvalue = [12, 0]\nclass = 1", fillcolor="#e58139"] ;
70 -> 76 ;
77 [label="Pregnancies <= 0.241\nentropy = 0.762\nsamples = 77\nvalue = [17, 60]\nclass = 0", fillcolor="#71b9ec"] ;
69 -> 77 ;
78 [label="BMI <= 2.425\nentropy = 0.362\nsamples = 29\nvalue = [2, 27]\nclass = 0", fillcolor="#48a4e7"] ;
77 -> 78 ;
79 [label="entropy = 0.0\nsamples = 27\nvalue = [0, 27]\nclass = 0", fillcolor="#399de5"] ;
78 -> 79 ;
80 [label="entropy = 0.0\nsamples = 2\nvalue = [2, 0]\nclass = 1", fillcolor="#e58139"] ;
78 -> 80 ;
81 [label="Age <= 0.502\nentropy = 0.896\nsamples = 48\nvalue = [15, 33]\nclass = 0", fillcolor="#93caf1"] ;
77 -> 81 ;
82 [label="entropy = 0.0\nsamples = 12\nvalue = [0, 12]\nclass = 0", fillcolor="#399de5"] ;
81 -> 82 ;
83 [label="BMI <= -0.048\nentropy = 0.98\nsamples = 36\nvalue = [15, 21]\nclass = 0", fillcolor="#c6e3f8"] ;
81 -> 83 ;
84 [label="DiabetesPedigreeFunction <= -1.001\nentropy = 0.918\nsamples = 15\nvalue = [10, 5]\nclass = 1", fillcolor="#f2c09c"] ;
83 -> 84 ;
85 [label="entropy = 0.0\nsamples = 3\nvalue = [0, 3]\nclass = 0", fillcolor="#399de5"] ;
84 -> 85 ;
86 [label="BloodPressure <= 0.305\nentropy = 0.65\nsamples = 12\nvalue = [10, 2]\nclass = 1", fillcolor="#ea9a61"] ;
84 -> 86 ;
87 [label="entropy = 0.0\nsamples = 7\nvalue = [7, 0]\nclass = 1", fillcolor="#e58139"] ;
86 -> 87 ;
88 [label="BloodPressure <= 0.409\nentropy = 0.971\nsamples = 5\nvalue = [3, 2]\nclass = 1", fillcolor="#f6d5bd"] ;
86 -> 88 ;
89 [label="entropy = 0.0\nsamples = 2\nvalue = [0, 2]\nclass = 0", fillcolor="#399de5"] ;
88 -> 89 ;
90 [label="entropy = 0.0\nsamples = 3\nvalue = [3, 0]\nclass = 1", fillcolor="#e58139"] ;
88 -> 90 ;
91 [label="DiabetesPedigreeFunction <= -0.669\nentropy = 0.792\nsamples = 21\nvalue = [5, 16]\nclass = 0", fillcolor="#77bced"] ;
83 -> 91 ;
92 [label="Pregnancies <= 0.997\nentropy = 0.918\nsamples = 6\nvalue = [4, 2]\nclass = 1", fillcolor="#f2c09c"] ;
91 -> 92 ;
93 [label="entropy = 0.0\nsamples = 2\nvalue = [0, 2]\nclass = 0", fillcolor="#399de5"] ;
92 -> 93 ;
94 [label="entropy = 0.0\nsamples = 4\nvalue = [4, 0]\nclass = 1", fillcolor="#e58139"] ;
92 -> 94 ;
95 [label="Glucose <= -0.052\nentropy = 0.353\nsamples = 15\nvalue = [1, 14]\nclass = 0", fillcolor="#47a4e7"] ;
91 -> 95 ;
96 [label="entropy = 0.0\nsamples = 14\nvalue = [0, 14]\nclass = 0", fillcolor="#399de5"] ;
95 -> 96 ;
97 [label="entropy = 0.0\nsamples = 1\nvalue = [1, 0]\nclass = 1", fillcolor="#e58139"] ;
95 -> 97 ;
98 [label="entropy = 0.0\nsamples = 9\nvalue = [9, 0]\nclass = 1", fillcolor="#e58139"] ;
68 -> 98 ;
99 [label="entropy = 0.0\nsamples = 14\nvalue = [14, 0]\nclass = 1", fillcolor="#e58139"] ;
67 -> 99 ;
100 [label="BMI <= 1.339\nentropy = 0.65\nsamples = 90\nvalue = [75, 15]\nclass = 1", fillcolor="#ea9a61"] ;
66 -> 100 ;
101 [label="BloodPressure <= -0.112\nentropy = 0.499\nsamples = 82\nvalue = [73, 9]\nclass = 1", fillcolor="#e89151"] ;
100 -> 101 ;
102 [label="DiabetesPedigreeFunction <= -0.259\nentropy = 0.964\nsamples = 18\nvalue = [11, 7]\nclass = 1", fillcolor="#f6d1b7"] ;
101 -> 102 ;
103 [label="entropy = 0.0\nsamples = 7\nvalue = [0, 7]\nclass = 0", fillcolor="#399de5"] ;
102 -> 103 ;
104 [label="entropy = 0.0\nsamples = 11\nvalue = [11, 0]\nclass = 1", fillcolor="#e58139"] ;
102 -> 104 ;
105 [label="Insulin <= 0.672\nentropy = 0.201\nsamples = 64\nvalue = [62, 2]\nclass = 1", fillcolor="#e6853f"] ;
101 -> 105 ;
106 [label="entropy = 0.0\nsamples = 55\nvalue = [55, 0]\nclass = 1", fillcolor="#e58139"] ;
105 -> 106 ;
107 [label="Insulin <= 0.875\nentropy = 0.764\nsamples = 9\nvalue = [7, 2]\nclass = 1", fillcolor="#eca572"] ;
105 -> 107 ;
108 [label="entropy = 0.0\nsamples = 2\nvalue = [0, 2]\nclass = 0", fillcolor="#399de5"] ;
107 -> 108 ;
109 [label="entropy = 0.0\nsamples = 7\nvalue = [7, 0]\nclass = 1", fillcolor="#e58139"] ;
107 -> 109 ;
110 [label="BloodPressure <= 0.514\nentropy = 0.811\nsamples = 8\nvalue = [2, 6]\nclass = 0", fillcolor="#7bbeee"] ;
100 -> 110 ;
111 [label="entropy = 0.0\nsamples = 2\nvalue = [2, 0]\nclass = 1", fillcolor="#e58139"] ;
110 -> 111 ;
112 [label="entropy = 0.0\nsamples = 6\nvalue = [0, 6]\nclass = 0", fillcolor="#399de5"] ;
110 -> 112 ;
113 [label="Pregnancies <= 0.846\nentropy = 0.847\nsamples = 95\nvalue = [26, 69]\nclass = 0", fillcolor="#84c2ef"] ;
65 -> 113 ;
114 [label="Age <= -0.22\nentropy = 0.987\nsamples = 60\nvalue = [26, 34]\nclass = 0", fillcolor="#d0e8f9"] ;
113 -> 114 ;
115 [label="entropy = 0.0\nsamples = 11\nvalue = [0, 11]\nclass = 0", fillcolor="#399de5"] ;
114 -> 115 ;
116 [label="BMI <= 0.105\nentropy = 0.997\nsamples = 49\nvalue = [26, 23]\nclass = 1", fillcolor="#fcf0e8"] ;
114 -> 116 ;
117 [label="Age <= 0.12\nentropy = 0.85\nsamples = 29\nvalue = [8, 21]\nclass = 0", fillcolor="#84c2ef"] ;
116 -> 117 ;
118 [label="BMI <= -0.613\nentropy = 0.722\nsamples = 10\nvalue = [8, 2]\nclass = 1", fillcolor="#eca06a"] ;
117 -> 118 ;
119 [label="entropy = 0.0\nsamples = 2\nvalue = [0, 2]\nclass = 0", fillcolor="#399de5"] ;
118 -> 119 ;
120 [label="entropy = 0.0\nsamples = 8\nvalue = [8, 0]\nclass = 1", fillcolor="#e58139"] ;
118 -> 120 ;
121 [label="entropy = 0.0\nsamples = 19\nvalue = [0, 19]\nclass = 0", fillcolor="#399de5"] ;
117 -> 121 ;
122 [label="Age <= 1.859\nentropy = 0.469\nsamples = 20\nvalue = [18, 2]\nclass = 1", fillcolor="#e88f4f"] ;
116 -> 122 ;
123 [label="entropy = 0.0\nsamples = 18\nvalue = [18, 0]\nclass = 1", fillcolor="#e58139"] ;
122 -> 123 ;
124 [label="entropy = 0.0\nsamples = 2\nvalue = [0, 2]\nclass = 0", fillcolor="#399de5"] ;
122 -> 124 ;
125 [label="entropy = 0.0\nsamples = 35\nvalue = [0, 35]\nclass = 0", fillcolor="#399de5"] ;
113 -> 125 ;
126 [label="BMI <= -0.275\nentropy = 0.97\nsamples = 751\nvalue = [299, 452]\nclass = 0", fillcolor="#bcdef6"] ;
0 -> 126 [labeldistance=2.5, labelangle=-45, headlabel="False"] ;
127 [label="Age <= 2.326\nentropy = 0.91\nsamples = 209\nvalue = [141, 68]\nclass = 1", fillcolor="#f2be98"] ;
126 -> 127 ;
128 [label="Age <= -0.559\nentropy = 0.961\nsamples = 177\nvalue = [109, 68]\nclass = 1", fillcolor="#f5d0b5"] ;
127 -> 128 ;
129 [label="BMI <= -0.416\nentropy = 0.424\nsamples = 58\nvalue = [53, 5]\nclass = 1", fillcolor="#e78d4c"] ;
128 -> 129 ;
130 [label="Pregnancies <= -0.364\nentropy = 0.225\nsamples = 55\nvalue = [53, 2]\nclass = 1", fillcolor="#e68640"] ;
129 -> 130 ;
131 [label="entropy = 0.0\nsamples = 48\nvalue = [48, 0]\nclass = 1", fillcolor="#e58139"] ;
130 -> 131 ;
132 [label="BloodPressure <= -0.529\nentropy = 0.863\nsamples = 7\nvalue = [5, 2]\nclass = 1", fillcolor="#efb388"] ;
130 -> 132 ;
133 [label="entropy = 0.0\nsamples = 2\nvalue = [0, 2]\nclass = 0", fillcolor="#399de5"] ;
132 -> 133 ;
134 [label="entropy = 0.0\nsamples = 5\nvalue = [5, 0]\nclass = 1", fillcolor="#e58139"] ;
132 -> 134 ;
135 [label="entropy = 0.0\nsamples = 3\nvalue = [0, 3]\nclass = 0", fillcolor="#399de5"] ;
129 -> 135 ;
136 [label="Glucose <= 1.039\nentropy = 0.998\nsamples = 119\nvalue = [56, 63]\nclass = 0", fillcolor="#e9f4fc"] ;
128 -> 136 ;
137 [label="SkinThickness <= 0.47\nentropy = 0.939\nsamples = 76\nvalue = [49, 27]\nclass = 1", fillcolor="#f3c6a6"] ;
136 -> 137 ;
138 [label="BloodPressure <= -2.145\nentropy = 0.714\nsamples = 51\nvalue = [41, 10]\nclass = 1", fillcolor="#eba069"] ;
137 -> 138 ;
139 [label="entropy = 0.0\nsamples = 2\nvalue = [0, 2]\nclass = 0", fillcolor="#399de5"] ;
138 -> 139 ;
140 [label="Age <= -0.05\nentropy = 0.642\nsamples = 49\nvalue = [41, 8]\nclass = 1", fillcolor="#ea9a60"] ;
138 -> 140 ;
141 [label="entropy = 0.0\nsamples = 15\nvalue = [15, 0]\nclass = 1", fillcolor="#e58139"] ;
140 -> 141 ;
142 [label="Age <= 0.162\nentropy = 0.787\nsamples = 34\nvalue = [26, 8]\nclass = 1", fillcolor="#eda876"] ;
140 -> 142 ;
143 [label="entropy = 0.0\nsamples = 3\nvalue = [0, 3]\nclass = 0", fillcolor="#399de5"] ;
142 -> 143 ;
144 [label="Glucose <= 0.758\nentropy = 0.637\nsamples = 31\nvalue = [26, 5]\nclass = 1", fillcolor="#ea995f"] ;
142 -> 144 ;
145 [label="Age <= 2.241\nentropy = 0.402\nsamples = 25\nvalue = [23, 2]\nclass = 1", fillcolor="#e78c4a"] ;
144 -> 145 ;
146 [label="entropy = 0.0\nsamples = 22\nvalue = [22, 0]\nclass = 1", fillcolor="#e58139"] ;
145 -> 146 ;
147 [label="Glucose <= 0.322\nentropy = 0.918\nsamples = 3\nvalue = [1, 2]\nclass = 0", fillcolor="#9ccef2"] ;
145 -> 147 ;
148 [label="entropy = 0.0\nsamples = 1\nvalue = [1, 0]\nclass = 1", fillcolor="#e58139"] ;
147 -> 148 ;
149 [label="entropy = 0.0\nsamples = 2\nvalue = [0, 2]\nclass = 0", fillcolor="#399de5"] ;
147 -> 149 ;
150 [label="BloodPressure <= 0.462\nentropy = 1.0\nsamples = 6\nvalue = [3, 3]\nclass = 1", fillcolor="#ffffff"] ;
144 -> 150 ;
151 [label="entropy = 0.0\nsamples = 3\nvalue = [3, 0]\nclass = 1", fillcolor="#e58139"] ;
150 -> 151 ;
152 [label="entropy = 0.0\nsamples = 3\nvalue = [0, 3]\nclass = 0", fillcolor="#399de5"] ;
150 -> 152 ;
153 [label="Glucose <= 0.899\nentropy = 0.904\nsamples = 25\nvalue = [8, 17]\nclass = 0", fillcolor="#96cbf1"] ;
137 -> 153 ;
154 [label="entropy = 0.0\nsamples = 14\nvalue = [0, 14]\nclass = 0", fillcolor="#399de5"] ;
153 -> 154 ;
155 [label="Pregnancies <= 1.754\nentropy = 0.845\nsamples = 11\nvalue = [8, 3]\nclass = 1", fillcolor="#efb083"] ;
153 -> 155 ;
156 [label="entropy = 0.0\nsamples = 8\nvalue = [8, 0]\nclass = 1", fillcolor="#e58139"] ;
155 -> 156 ;
157 [label="entropy = 0.0\nsamples = 3\nvalue = [0, 3]\nclass = 0", fillcolor="#399de5"] ;
155 -> 157 ;
158 [label="BMI <= -0.637\nentropy = 0.641\nsamples = 43\nvalue = [7, 36]\nclass = 0", fillcolor="#5fb0ea"] ;
136 -> 158 ;
159 [label="entropy = 0.0\nsamples = 27\nvalue = [0, 27]\nclass = 0", fillcolor="#399de5"] ;
158 -> 159 ;
160 [label="Age <= 0.289\nentropy = 0.989\nsamples = 16\nvalue = [7, 9]\nclass = 0", fillcolor="#d3e9f9"] ;
158 -> 160 ;
161 [label="entropy = 0.0\nsamples = 9\nvalue = [0, 9]\nclass = 0", fillcolor="#399de5"] ;
160 -> 161 ;
162 [label="entropy = 0.0\nsamples = 7\nvalue = [7, 0]\nclass = 1", fillcolor="#e58139"] ;
160 -> 162 ;
163 [label="entropy = 0.0\nsamples = 32\nvalue = [32, 0]\nclass = 1", fillcolor="#e58139"] ;
127 -> 163 ;
164 [label="Glucose <= 1.039\nentropy = 0.871\nsamples = 542\nvalue = [158, 384]\nclass = 0", fillcolor="#8ac5f0"] ;
126 -> 164 ;
165 [label="Age <= -0.22\nentropy = 0.975\nsamples = 280\nvalue = [114, 166]\nclass = 0", fillcolor="#c1e0f7"] ;
164 -> 165 ;
166 [label="BloodPressure <= -0.425\nentropy = 0.987\nsamples = 129\nvalue = [73, 56]\nclass = 1", fillcolor="#f9e2d1"] ;
165 -> 166 ;
167 [label="entropy = 0.0\nsamples = 22\nvalue = [0, 22]\nclass = 0", fillcolor="#399de5"] ;
166 -> 167 ;
168 [label="Insulin <= 1.617\nentropy = 0.902\nsamples = 107\nvalue = [73, 34]\nclass = 1", fillcolor="#f1bc95"] ;
166 -> 168 ;
169 [label="BMI <= 1.167\nentropy = 0.976\nsamples = 83\nvalue = [49, 34]\nclass = 1", fillcolor="#f7d8c2"] ;
168 -> 169 ;
170 [label="BloodPressure <= 0.201\nentropy = 0.869\nsamples = 62\nvalue = [44, 18]\nclass = 1", fillcolor="#f0b58a"] ;
169 -> 170 ;
171 [label="BMI <= 0.032\nentropy = 0.999\nsamples = 31\nvalue = [15, 16]\nclass = 0", fillcolor="#f3f9fd"] ;
170 -> 171 ;
172 [label="entropy = 0.0\nsamples = 8\nvalue = [0, 8]\nclass = 0", fillcolor="#399de5"] ;
171 -> 172 ;
173 [label="BMI <= 0.191\nentropy = 0.932\nsamples = 23\nvalue = [15, 8]\nclass = 1", fillcolor="#f3c4a3"] ;
171 -> 173 ;
174 [label="entropy = 0.0\nsamples = 8\nvalue = [8, 0]\nclass = 1", fillcolor="#e58139"] ;
173 -> 174 ;
175 [label="Glucose <= 0.259\nentropy = 0.997\nsamples = 15\nvalue = [7, 8]\nclass = 0", fillcolor="#e6f3fc"] ;
173 -> 175 ;
176 [label="entropy = 0.0\nsamples = 5\nvalue = [5, 0]\nclass = 1", fillcolor="#e58139"] ;
175 -> 176 ;
177 [label="BloodPressure <= -0.268\nentropy = 0.722\nsamples = 10\nvalue = [2, 8]\nclass = 0", fillcolor="#6ab6ec"] ;
175 -> 177 ;
178 [label="entropy = 0.0\nsamples = 2\nvalue = [2, 0]\nclass = 1", fillcolor="#e58139"] ;
177 -> 178 ;
179 [label="entropy = 0.0\nsamples = 8\nvalue = [0, 8]\nclass = 0", fillcolor="#399de5"] ;
177 -> 179 ;
180 [label="Pregnancies <= 0.241\nentropy = 0.345\nsamples = 31\nvalue = [29, 2]\nclass = 1", fillcolor="#e78a47"] ;
170 -> 180 ;
181 [label="entropy = 0.0\nsamples = 29\nvalue = [29, 0]\nclass = 1", fillcolor="#e58139"] ;
180 -> 181 ;
182 [label="entropy = 0.0\nsamples = 2\nvalue = [0, 2]\nclass = 0", fillcolor="#399de5"] ;
180 -> 182 ;
183 [label="DiabetesPedigreeFunction <= -0.303\nentropy = 0.792\nsamples = 21\nvalue = [5, 16]\nclass = 0", fillcolor="#77bced"] ;
169 -> 183 ;
184 [label="entropy = 0.0\nsamples = 12\nvalue = [0, 12]\nclass = 0", fillcolor="#399de5"] ;
183 -> 184 ;
185 [label="SkinThickness <= 0.78\nentropy = 0.991\nsamples = 9\nvalue = [5, 4]\nclass = 1", fillcolor="#fae6d7"] ;
183 -> 185 ;
186 [label="entropy = 0.0\nsamples = 4\nvalue = [0, 4]\nclass = 0", fillcolor="#399de5"] ;
185 -> 186 ;
187 [label="entropy = 0.0\nsamples = 5\nvalue = [5, 0]\nclass = 1", fillcolor="#e58139"] ;
185 -> 187 ;
188 [label="entropy = 0.0\nsamples = 24\nvalue = [24, 0]\nclass = 1", fillcolor="#e58139"] ;
168 -> 188 ;
189 [label="DiabetesPedigreeFunction <= -0.128\nentropy = 0.844\nsamples = 151\nvalue = [41, 110]\nclass = 0", fillcolor="#83c2ef"] ;
165 -> 189 ;
190 [label="BMI <= 1.639\nentropy = 0.999\nsamples = 66\nvalue = [32, 34]\nclass = 0", fillcolor="#f3f9fd"] ;
189 -> 190 ;
191 [label="DiabetesPedigreeFunction <= -1.034\nentropy = 0.975\nsamples = 54\nvalue = [32, 22]\nclass = 1", fillcolor="#f7d8c1"] ;
190 -> 191 ;
192 [label="entropy = 0.0\nsamples = 6\nvalue = [0, 6]\nclass = 0", fillcolor="#399de5"] ;
191 -> 192 ;
193 [label="BMI <= 0.032\nentropy = 0.918\nsamples = 48\nvalue = [32, 16]\nclass = 1", fillcolor="#f2c09c"] ;
191 -> 193 ;
194 [label="entropy = 0.0\nsamples = 12\nvalue = [12, 0]\nclass = 1", fillcolor="#e58139"] ;
193 -> 194 ;
195 [label="BMI <= 0.105\nentropy = 0.991\nsamples = 36\nvalue = [20, 16]\nclass = 1", fillcolor="#fae6d7"] ;
193 -> 195 ;
196 [label="entropy = 0.0\nsamples = 8\nvalue = [0, 8]\nclass = 0", fillcolor="#399de5"] ;
195 -> 196 ;
197 [label="SkinThickness <= 0.998\nentropy = 0.863\nsamples = 28\nvalue = [20, 8]\nclass = 1", fillcolor="#efb388"] ;
195 -> 197 ;
198 [label="Pregnancies <= 2.964\nentropy = 0.65\nsamples = 24\nvalue = [20, 4]\nclass = 1", fillcolor="#ea9a61"] ;
197 -> 198 ;
199 [label="DiabetesPedigreeFunction <= -0.365\nentropy = 0.439\nsamples = 22\nvalue = [20, 2]\nclass = 1", fillcolor="#e88e4d"] ;
198 -> 199 ;
200 [label="entropy = 0.0\nsamples = 18\nvalue = [18, 0]\nclass = 1", fillcolor="#e58139"] ;
199 -> 200 ;
201 [label="Glucose <= 0.431\nentropy = 1.0\nsamples = 4\nvalue = [2, 2]\nclass = 1", fillcolor="#ffffff"] ;
199 -> 201 ;
202 [label="entropy = 0.0\nsamples = 2\nvalue = [0, 2]\nclass = 0", fillcolor="#399de5"] ;
201 -> 202 ;
203 [label="entropy = 0.0\nsamples = 2\nvalue = [2, 0]\nclass = 1", fillcolor="#e58139"] ;
201 -> 203 ;
204 [label="entropy = 0.0\nsamples = 2\nvalue = [0, 2]\nclass = 0", fillcolor="#399de5"] ;
198 -> 204 ;
205 [label="entropy = 0.0\nsamples = 4\nvalue = [0, 4]\nclass = 0", fillcolor="#399de5"] ;
197 -> 205 ;
206 [label="entropy = 0.0\nsamples = 12\nvalue = [0, 12]\nclass = 0", fillcolor="#399de5"] ;
190 -> 206 ;
207 [label="DiabetesPedigreeFunction <= 0.69\nentropy = 0.487\nsamples = 85\nvalue = [9, 76]\nclass = 0", fillcolor="#50a9e8"] ;
189 -> 207 ;
208 [label="entropy = 0.0\nsamples = 50\nvalue = [0, 50]\nclass = 0", fillcolor="#399de5"] ;
207 -> 208 ;
209 [label="DiabetesPedigreeFunction <= 0.789\nentropy = 0.822\nsamples = 35\nvalue = [9, 26]\nclass = 0", fillcolor="#7ebfee"] ;
207 -> 209 ;
210 [label="entropy = 0.0\nsamples = 4\nvalue = [4, 0]\nclass = 1", fillcolor="#e58139"] ;
209 -> 210 ;
211 [label="DiabetesPedigreeFunction <= 1.993\nentropy = 0.637\nsamples = 31\nvalue = [5, 26]\nclass = 0", fillcolor="#5fb0ea"] ;
209 -> 211 ;
212 [label="entropy = 0.0\nsamples = 22\nvalue = [0, 22]\nclass = 0", fillcolor="#399de5"] ;
211 -> 212 ;
213 [label="Glucose <= 0.493\nentropy = 0.991\nsamples = 9\nvalue = [5, 4]\nclass = 1", fillcolor="#fae6d7"] ;
211 -> 213 ;
214 [label="entropy = 0.0\nsamples = 4\nvalue = [0, 4]\nclass = 0", fillcolor="#399de5"] ;
213 -> 214 ;
215 [label="entropy = 0.0\nsamples = 5\nvalue = [5, 0]\nclass = 1", fillcolor="#e58139"] ;
213 -> 215 ;
216 [label="BMI <= 1.707\nentropy = 0.653\nsamples = 262\nvalue = [44, 218]\nclass = 0", fillcolor="#61b1ea"] ;
164 -> 216 ;
217 [label="BMI <= 1.062\nentropy = 0.544\nsamples = 232\nvalue = [29, 203]\nclass = 0", fillcolor="#55abe9"] ;
216 -> 217 ;
218 [label="BMI <= 1.001\nentropy = 0.61\nsamples = 193\nvalue = [29, 164]\nclass = 0", fillcolor="#5caeea"] ;
217 -> 218 ;
219 [label="Insulin <= 4.159\nentropy = 0.551\nsamples = 188\nvalue = [24, 164]\nclass = 0", fillcolor="#56abe9"] ;
218 -> 219 ;
220 [label="DiabetesPedigreeFunction <= -0.397\nentropy = 0.496\nsamples = 184\nvalue = [20, 164]\nclass = 0", fillcolor="#51a9e8"] ;
219 -> 220 ;
221 [label="Glucose <= 1.195\nentropy = 0.751\nsamples = 79\nvalue = [17, 62]\nclass = 0", fillcolor="#6fb8ec"] ;
220 -> 221 ;
222 [label="Insulin <= 3.686\nentropy = 0.918\nsamples = 9\nvalue = [6, 3]\nclass = 1", fillcolor="#f2c09c"] ;
221 -> 222 ;
223 [label="entropy = 0.0\nsamples = 6\nvalue = [6, 0]\nclass = 1", fillcolor="#e58139"] ;
222 -> 223 ;
224 [label="entropy = 0.0\nsamples = 3\nvalue = [0, 3]\nclass = 0", fillcolor="#399de5"] ;
222 -> 224 ;
225 [label="BMI <= 0.381\nentropy = 0.627\nsamples = 70\nvalue = [11, 59]\nclass = 0", fillcolor="#5eafea"] ;
221 -> 225 ;
226 [label="Age <= 1.393\nentropy = 0.82\nsamples = 43\nvalue = [11, 32]\nclass = 0", fillcolor="#7dbfee"] ;
225 -> 226 ;
227 [label="Glucose <= 1.741\nentropy = 0.679\nsamples = 39\nvalue = [7, 32]\nclass = 0", fillcolor="#64b2eb"] ;
226 -> 227 ;
228 [label="entropy = 0.0\nsamples = 21\nvalue = [0, 21]\nclass = 0", fillcolor="#399de5"] ;
227 -> 228 ;
229 [label="Glucose <= 1.85\nentropy = 0.964\nsamples = 18\nvalue = [7, 11]\nclass = 0", fillcolor="#b7dbf6"] ;
227 -> 229 ;
230 [label="entropy = 0.0\nsamples = 5\nvalue = [5, 0]\nclass = 1", fillcolor="#e58139"] ;
229 -> 230 ;
231 [label="SkinThickness <= 0.097\nentropy = 0.619\nsamples = 13\nvalue = [2, 11]\nclass = 0", fillcolor="#5dafea"] ;
229 -> 231 ;
232 [label="SkinThickness <= -0.835\nentropy = 0.971\nsamples = 5\nvalue = [2, 3]\nclass = 0", fillcolor="#bddef6"] ;
231 -> 232 ;
233 [label="entropy = 0.0\nsamples = 3\nvalue = [0, 3]\nclass = 0", fillcolor="#399de5"] ;
232 -> 233 ;
234 [label="entropy = 0.0\nsamples = 2\nvalue = [2, 0]\nclass = 1", fillcolor="#e58139"] ;
232 -> 234 ;
235 [label="entropy = 0.0\nsamples = 8\nvalue = [0, 8]\nclass = 0", fillcolor="#399de5"] ;
231 -> 235 ;
236 [label="entropy = 0.0\nsamples = 4\nvalue = [4, 0]\nclass = 1", fillcolor="#e58139"] ;
226 -> 236 ;
237 [label="entropy = 0.0\nsamples = 27\nvalue = [0, 27]\nclass = 0", fillcolor="#399de5"] ;
225 -> 237 ;
238 [label="Age <= 1.223\nentropy = 0.187\nsamples = 105\nvalue = [3, 102]\nclass = 0", fillcolor="#3fa0e6"] ;
220 -> 238 ;
239 [label="entropy = 0.0\nsamples = 81\nvalue = [0, 81]\nclass = 0", fillcolor="#399de5"] ;
238 -> 239 ;
240 [label="Age <= 1.435\nentropy = 0.544\nsamples = 24\nvalue = [3, 21]\nclass = 0", fillcolor="#55abe9"] ;
238 -> 240 ;
241 [label="SkinThickness <= -0.027\nentropy = 0.971\nsamples = 5\nvalue = [3, 2]\nclass = 1", fillcolor="#f6d5bd"] ;
240 -> 241 ;
242 [label="entropy = 0.0\nsamples = 2\nvalue = [0, 2]\nclass = 0", fillcolor="#399de5"] ;
241 -> 242 ;
243 [label="entropy = 0.0\nsamples = 3\nvalue = [3, 0]\nclass = 1", fillcolor="#e58139"] ;
241 -> 243 ;
244 [label="entropy = 0.0\nsamples = 19\nvalue = [0, 19]\nclass = 0", fillcolor="#399de5"] ;
240 -> 244 ;
245 [label="entropy = 0.0\nsamples = 4\nvalue = [4, 0]\nclass = 1", fillcolor="#e58139"] ;
219 -> 245 ;
246 [label="entropy = 0.0\nsamples = 5\nvalue = [5, 0]\nclass = 1", fillcolor="#e58139"] ;
218 -> 246 ;
247 [label="entropy = 0.0\nsamples = 39\nvalue = [0, 39]\nclass = 0", fillcolor="#399de5"] ;
217 -> 247 ;
248 [label="Insulin <= 0.358\nentropy = 1.0\nsamples = 30\nvalue = [15, 15]\nclass = 1", fillcolor="#ffffff"] ;
216 -> 248 ;
249 [label="entropy = 0.0\nsamples = 15\nvalue = [0, 15]\nclass = 0", fillcolor="#399de5"] ;
248 -> 249 ;
250 [label="entropy = 0.0\nsamples = 15\nvalue = [15, 0]\nclass = 1", fillcolor="#e58139"] ;
248 -> 250 ;
{rank=same ; 0} ;
{rank=same ; 1; 126} ;
{rank=same ; 23; 31; 39; 71; 78; 81; 145; 150; 175; 198; 226; 241} ;
{rank=same ; 41; 73; 83; 147; 177; 199; 227} ;
{rank=same ; 84; 91; 201; 229} ;
{rank=same ; 86; 92; 95; 231} ;
{rank=same ; 88; 232} ;
{rank=same ; 2; 49; 127; 164} ;
{rank=same ; 3; 10; 50; 53; 128; 165; 216} ;
{rank=same ; 4; 12; 54; 65; 129; 136; 166; 189; 217; 248} ;
{rank=same ; 6; 13; 46; 56; 66; 113; 130; 137; 158; 168; 190; 207; 218} ;
{rank=same ; 15; 57; 60; 67; 100; 114; 132; 138; 153; 160; 169; 191; 209; 219} ;
{rank=same ; 16; 35; 62; 68; 101; 110; 116; 140; 155; 170; 183; 193; 211; 220} ;
{rank=same ; 17; 26; 36; 69; 102; 105; 117; 122; 142; 171; 180; 185; 195; 213; 221; 238} ;
{rank=same ; 18; 21; 27; 30; 38; 70; 77; 107; 118; 144; 173; 197; 222; 225; 240} ;
{rank=same ; 5; 7; 8; 9; 11; 14; 19; 20; 22; 24; 25; 28; 29; 32; 33; 34; 37; 40; 42; 43; 44; 45; 47; 48; 51; 52; 55; 58; 59; 61; 63; 64; 72; 74; 75; 76; 79; 80; 82; 85; 87; 89; 90; 93; 94; 96; 97; 98; 99; 103; 104; 106; 108; 109; 111; 112; 115; 119; 120; 121; 123; 124; 125; 131; 133; 134; 135; 139; 141; 143; 146; 148; 149; 151; 152; 154; 156; 157; 159; 161; 162; 163; 167; 172; 174; 176; 178; 179; 181; 182; 184; 186; 187; 188; 192; 194; 196; 200; 202; 203; 204; 205; 206; 208; 210; 212; 214; 215; 223; 224; 228; 230; 233; 234; 235; 236; 237; 239; 242; 243; 244; 245; 246; 247; 249; 250} ;
}